digraph Tree {
node [shape=box, style="filled, rounded", color="black", fontname=helvetica] ;
edge [fontname=helvetica] ;
0 [label="p_T-corr <= 8.45\ngini = 0.54\nsamples = 9576\nvalue = [5164, 541, 3871]\nclass = Real", fillcolor="#f9e2d2"] ;
1 [label="Area <= 0.13\ngini = 0.21\nsamples = 5790\nvalue = [5125, 394, 271]\nclass = Real", fillcolor="#e89151"] ;
0 -> 1 [labeldistance=2.5, labelangle=45, headlabel="True"] ;
2 [label="Mean-p_T <= 0.71\ngini = 0.08\nsamples = 5266\nvalue = [5039, 0, 227]\nclass = Real", fillcolor="#e68742"] ;
1 -> 2 ;
3 [label="Epsilon <= 306.95\ngini = 0.01\nsamples = 5014\nvalue = [4980, 0, 34]\nclass = Real", fillcolor="#e5823a"] ;
2 -> 3 ;
4 [label="Mean-p_T <= 0.69\ngini = 0.01\nsamples = 4984\nvalue = [4966, 0, 18]\nclass = Real", fillcolor="#e5813a"] ;
3 -> 4 ;
5 [label="gini = 0.0\nsamples = 4860\nvalue = [4860, 0, 0]\nclass = Real", fillcolor="#e58139"] ;
4 -> 5 ;
6 [label="Area <= 0.12\ngini = 0.25\nsamples = 124\nvalue = [106, 0, 18]\nclass = Real", fillcolor="#e9965b"] ;
4 -> 6 ;
7 [label="gini = 0.0\nsamples = 79\nvalue = [79, 0, 0]\nclass = Real", fillcolor="#e58139"] ;
6 -> 7 ;
8 [label="Angularity <= 0.12\ngini = 0.48\nsamples = 45\nvalue = [27, 0, 18]\nclass = Real", fillcolor="#f6d5bd"] ;
6 -> 8 ;
9 [label="gini = 0.0\nsamples = 17\nvalue = [0, 0, 17]\nclass = Squish", fillcolor="#8139e5"] ;
8 -> 9 ;
10 [label="Mean-p_T <= 0.71\ngini = 0.07\nsamples = 28\nvalue = [27, 0, 1]\nclass = Real", fillcolor="#e68640"] ;
8 -> 10 ;
11 [label="gini = 0.0\nsamples = 27\nvalue = [27, 0, 0]\nclass = Real", fillcolor="#e58139"] ;
10 -> 11 ;
12 [label="gini = 0.0\nsamples = 1\nvalue = [0, 0, 1]\nclass = Squish", fillcolor="#8139e5"] ;
10 -> 12 ;
13 [label="Angularity <= 0.12\ngini = 0.5\nsamples = 30\nvalue = [14, 0, 16]\nclass = Squish", fillcolor="#efe6fc"] ;
3 -> 13 ;
14 [label="gini = 0.0\nsamples = 15\nvalue = [0, 0, 15]\nclass = Squish", fillcolor="#8139e5"] ;
13 -> 14 ;
15 [label="Mean-p_T <= 0.69\ngini = 0.12\nsamples = 15\nvalue = [14, 0, 1]\nclass = Real", fillcolor="#e78a47"] ;
13 -> 15 ;
16 [label="gini = 0.0\nsamples = 14\nvalue = [14, 0, 0]\nclass = Real", fillcolor="#e58139"] ;
15 -> 16 ;
17 [label="gini = 0.0\nsamples = 1\nvalue = [0, 0, 1]\nclass = Squish", fillcolor="#8139e5"] ;
15 -> 17 ;
18 [label="Angularity <= 0.12\ngini = 0.36\nsamples = 252\nvalue = [59, 0, 193]\nclass = Squish", fillcolor="#a876ed"] ;
2 -> 18 ;
19 [label="Angularity <= 0.12\ngini = 0.04\nsamples = 146\nvalue = [3, 0, 143]\nclass = Squish", fillcolor="#843de6"] ;
18 -> 19 ;
20 [label="gini = 0.0\nsamples = 133\nvalue = [0, 0, 133]\nclass = Squish", fillcolor="#8139e5"] ;
19 -> 20 ;
21 [label="Mean-p_T <= 0.73\ngini = 0.36\nsamples = 13\nvalue = [3, 0, 10]\nclass = Squish", fillcolor="#a774ed"] ;
19 -> 21 ;
22 [label="gini = 0.0\nsamples = 2\nvalue = [2, 0, 0]\nclass = Real", fillcolor="#e58139"] ;
21 -> 22 ;
23 [label="Angularity <= 0.12\ngini = 0.17\nsamples = 11\nvalue = [1, 0, 10]\nclass = Squish", fillcolor="#8e4de8"] ;
21 -> 23 ;
24 [label="gini = 0.0\nsamples = 1\nvalue = [1, 0, 0]\nclass = Real", fillcolor="#e58139"] ;
23 -> 24 ;
25 [label="gini = 0.0\nsamples = 10\nvalue = [0, 0, 10]\nclass = Squish", fillcolor="#8139e5"] ;
23 -> 25 ;
26 [label="Area <= 0.12\ngini = 0.5\nsamples = 106\nvalue = [56, 0, 50]\nclass = Real", fillcolor="#fcf2ea"] ;
18 -> 26 ;
27 [label="Area <= 0.08\ngini = 0.03\nsamples = 57\nvalue = [56, 0, 1]\nclass = Real", fillcolor="#e5833d"] ;
26 -> 27 ;
28 [label="gini = 0.0\nsamples = 1\nvalue = [0, 0, 1]\nclass = Squish", fillcolor="#8139e5"] ;
27 -> 28 ;
29 [label="gini = 0.0\nsamples = 56\nvalue = [56, 0, 0]\nclass = Real", fillcolor="#e58139"] ;
27 -> 29 ;
30 [label="gini = 0.0\nsamples = 49\nvalue = [0, 0, 49]\nclass = Squish", fillcolor="#8139e5"] ;
26 -> 30 ;
31 [label="Angularity <= 0.12\ngini = 0.4\nsamples = 524\nvalue = [86, 394, 44]\nclass = Fake", fillcolor="#74eda6"] ;
1 -> 31 ;
32 [label="Mean-p_T <= 0.69\ngini = 0.38\nsamples = 95\nvalue = [71, 0, 24]\nclass = Real", fillcolor="#eeac7c"] ;
31 -> 32 ;
33 [label="gini = 0.0\nsamples = 71\nvalue = [71, 0, 0]\nclass = Real", fillcolor="#e58139"] ;
32 -> 33 ;
34 [label="gini = 0.0\nsamples = 24\nvalue = [0, 0, 24]\nclass = Squish", fillcolor="#8139e5"] ;
32 -> 34 ;
35 [label="Mean-p_T <= 0.69\ngini = 0.15\nsamples = 429\nvalue = [15, 394, 20]\nclass = Fake", fillcolor="#4ae78c"] ;
31 -> 35 ;
36 [label="Angularity <= 0.12\ngini = 0.03\nsamples = 400\nvalue = [6, 394, 0]\nclass = Fake", fillcolor="#3ce583"] ;
35 -> 36 ;
37 [label="Angularity <= 0.12\ngini = 0.31\nsamples = 31\nvalue = [6, 25, 0]\nclass = Fake", fillcolor="#69eb9f"] ;
36 -> 37 ;
38 [label="gini = 0.0\nsamples = 25\nvalue = [0, 25, 0]\nclass = Fake", fillcolor="#39e581"] ;
37 -> 38 ;
39 [label="gini = 0.0\nsamples = 6\nvalue = [6, 0, 0]\nclass = Real", fillcolor="#e58139"] ;
37 -> 39 ;
40 [label="gini = 0.0\nsamples = 369\nvalue = [0, 369, 0]\nclass = Fake", fillcolor="#39e581"] ;
36 -> 40 ;
41 [label="Mean-p_T <= 0.71\ngini = 0.43\nsamples = 29\nvalue = [9, 0, 20]\nclass = Squish", fillcolor="#ba92f1"] ;
35 -> 41 ;
42 [label="gini = 0.0\nsamples = 9\nvalue = [9, 0, 0]\nclass = Real", fillcolor="#e58139"] ;
41 -> 42 ;
43 [label="gini = 0.0\nsamples = 20\nvalue = [0, 0, 20]\nclass = Squish", fillcolor="#8139e5"] ;
41 -> 43 ;
44 [label="Epsilon <= 304.75\ngini = 0.09\nsamples = 3786\nvalue = [39, 147, 3600]\nclass = Squish", fillcolor="#8743e6"] ;
0 -> 44 [labeldistance=2.5, labelangle=-45, headlabel="False"] ;
45 [label="Angularity <= 0.12\ngini = 0.6\nsamples = 303\nvalue = [36, 142, 125]\nclass = Fake", fillcolor="#ecfdf3"] ;
44 -> 45 ;
46 [label="Area <= 0.12\ngini = 0.09\nsamples = 83\nvalue = [4, 0, 79]\nclass = Squish", fillcolor="#8743e6"] ;
45 -> 46 ;
47 [label="Angularity <= 0.12\ngini = 0.49\nsamples = 7\nvalue = [4, 0, 3]\nclass = Real", fillcolor="#f8e0ce"] ;
46 -> 47 ;
48 [label="gini = 0.0\nsamples = 4\nvalue = [4, 0, 0]\nclass = Real", fillcolor="#e58139"] ;
47 -> 48 ;
49 [label="gini = 0.0\nsamples = 3\nvalue = [0, 0, 3]\nclass = Squish", fillcolor="#8139e5"] ;
47 -> 49 ;
50 [label="gini = 0.0\nsamples = 76\nvalue = [0, 0, 76]\nclass = Squish", fillcolor="#8139e5"] ;
46 -> 50 ;
51 [label="Area <= 0.12\ngini = 0.52\nsamples = 220\nvalue = [32, 142, 46]\nclass = Fake", fillcolor="#92f1b9"] ;
45 -> 51 ;
52 [label="Mean-p_T <= 0.7\ngini = 0.11\nsamples = 34\nvalue = [32, 0, 2]\nclass = Real", fillcolor="#e78945"] ;
51 -> 52 ;
53 [label="gini = 0.0\nsamples = 32\nvalue = [32, 0, 0]\nclass = Real", fillcolor="#e58139"] ;
52 -> 53 ;
54 [label="gini = 0.0\nsamples = 2\nvalue = [0, 0, 2]\nclass = Squish", fillcolor="#8139e5"] ;
52 -> 54 ;
55 [label="Mean-p_T <= 0.69\ngini = 0.36\nsamples = 186\nvalue = [0, 142, 44]\nclass = Fake", fillcolor="#76eda8"] ;
51 -> 55 ;
56 [label="p_T-corr <= 11.27\ngini = 0.18\nsamples = 154\nvalue = [0, 139, 15]\nclass = Fake", fillcolor="#4ee88f"] ;
55 -> 56 ;
57 [label="gini = 0.0\nsamples = 139\nvalue = [0, 139, 0]\nclass = Fake", fillcolor="#39e581"] ;
56 -> 57 ;
58 [label="gini = 0.0\nsamples = 15\nvalue = [0, 0, 15]\nclass = Squish", fillcolor="#8139e5"] ;
56 -> 58 ;
59 [label="p_T-corr <= 8.49\ngini = 0.17\nsamples = 32\nvalue = [0, 3, 29]\nclass = Squish", fillcolor="#8e4de8"] ;
55 -> 59 ;
60 [label="gini = 0.0\nsamples = 1\nvalue = [0, 1, 0]\nclass = Fake", fillcolor="#39e581"] ;
59 -> 60 ;
61 [label="Mean-p_T <= 0.7\ngini = 0.12\nsamples = 31\nvalue = [0, 2, 29]\nclass = Squish", fillcolor="#8a47e7"] ;
59 -> 61 ;
62 [label="p_T-corr <= 9.16\ngini = 0.41\nsamples = 7\nvalue = [0, 2, 5]\nclass = Squish", fillcolor="#b388ef"] ;
61 -> 62 ;
63 [label="gini = 0.0\nsamples = 2\nvalue = [0, 2, 0]\nclass = Fake", fillcolor="#39e581"] ;
62 -> 63 ;
64 [label="gini = 0.0\nsamples = 5\nvalue = [0, 0, 5]\nclass = Squish", fillcolor="#8139e5"] ;
62 -> 64 ;
65 [label="gini = 0.0\nsamples = 24\nvalue = [0, 0, 24]\nclass = Squish", fillcolor="#8139e5"] ;
61 -> 65 ;
66 [label="Epsilon <= 306.82\ngini = 0.0\nsamples = 3483\nvalue = [3, 5, 3475]\nclass = Squish", fillcolor="#8139e5"] ;
44 -> 66 ;
67 [label="p_T-corr <= 11.0\ngini = 0.42\nsamples = 30\nvalue = [3, 5, 22]\nclass = Squish", fillcolor="#a978ed"] ;
66 -> 67 ;
68 [label="Area <= 0.12\ngini = 0.66\nsamples = 11\nvalue = [3, 4, 4]\nclass = Fake", fillcolor="#ffffff"] ;
67 -> 68 ;
69 [label="Area <= 0.1\ngini = 0.49\nsamples = 7\nvalue = [3, 0, 4]\nclass = Squish", fillcolor="#e0cef8"] ;
68 -> 69 ;
70 [label="gini = 0.0\nsamples = 3\nvalue = [0, 0, 3]\nclass = Squish", fillcolor="#8139e5"] ;
69 -> 70 ;
71 [label="p_T-corr <= 9.77\ngini = 0.38\nsamples = 4\nvalue = [3, 0, 1]\nclass = Real", fillcolor="#eeab7b"] ;
69 -> 71 ;
72 [label="gini = 0.0\nsamples = 3\nvalue = [3, 0, 0]\nclass = Real", fillcolor="#e58139"] ;
71 -> 72 ;
73 [label="gini = 0.0\nsamples = 1\nvalue = [0, 0, 1]\nclass = Squish", fillcolor="#8139e5"] ;
71 -> 73 ;
74 [label="gini = 0.0\nsamples = 4\nvalue = [0, 4, 0]\nclass = Fake", fillcolor="#39e581"] ;
68 -> 74 ;
75 [label="Mean-p_T <= 0.58\ngini = 0.1\nsamples = 19\nvalue = [0, 1, 18]\nclass = Squish", fillcolor="#8844e6"] ;
67 -> 75 ;
76 [label="Mean-p_T <= 0.58\ngini = 0.38\nsamples = 4\nvalue = [0, 1, 3]\nclass = Squish", fillcolor="#ab7bee"] ;
75 -> 76 ;
77 [label="gini = 0.0\nsamples = 3\nvalue = [0, 0, 3]\nclass = Squish", fillcolor="#8139e5"] ;
76 -> 77 ;
78 [label="gini = 0.0\nsamples = 1\nvalue = [0, 1, 0]\nclass = Fake", fillcolor="#39e581"] ;
76 -> 78 ;
79 [label="gini = 0.0\nsamples = 15\nvalue = [0, 0, 15]\nclass = Squish", fillcolor="#8139e5"] ;
75 -> 79 ;
80 [label="gini = 0.0\nsamples = 3453\nvalue = [0, 0, 3453]\nclass = Squish", fillcolor="#8139e5"] ;
66 -> 80 ;
}