digraph Tree {
node [shape=box, style="filled, rounded", color="black", fontname=helvetica] ;
edge [fontname=helvetica] ;
0 [label="Area <= 0.38\ngini = 0.5\nsamples = 563937\nvalue = [265236, 298701]\nclass = Squish", fillcolor="#e9f4fc"] ;
1 [label="Area <= 0.37\ngini = 0.01\nsamples = 263238\nvalue = [261539, 1699]\nclass = Fake", fillcolor="#e5823a"] ;
0 -> 1 [labeldistance=2.5, labelangle=45, headlabel="True"] ;
2 [label="Area <= 0.37\ngini = 0.0\nsamples = 258954\nvalue = [258953, 1]\nclass = Fake", fillcolor="#e58139"] ;
1 -> 2 ;
3 [label="gini = 0.0\nsamples = 258400\nvalue = [258400, 0]\nclass = Fake", fillcolor="#e58139"] ;
2 -> 3 ;
4 [label="gini = 0.0\nsamples = 554\nvalue = [553, 1]\nclass = Fake", fillcolor="#e58139"] ;
2 -> 4 ;
5 [label="Angularity <= 0.3\ngini = 0.48\nsamples = 4284\nvalue = [2586, 1698]\nclass = Fake", fillcolor="#f6d4bb"] ;
1 -> 5 ;
6 [label="gini = 0.13\nsamples = 2267\nvalue = [2114, 153]\nclass = Fake", fillcolor="#e78a47"] ;
5 -> 6 ;
7 [label="gini = 0.36\nsamples = 2017\nvalue = [472, 1545]\nclass = Squish", fillcolor="#75bbed"] ;
5 -> 7 ;
8 [label="Angularity <= 0.28\ngini = 0.02\nsamples = 300699\nvalue = [3697, 297002]\nclass = Squish", fillcolor="#3b9ee5"] ;
0 -> 8 [labeldistance=2.5, labelangle=-45, headlabel="False"] ;
9 [label="Area <= 0.4\ngini = 0.49\nsamples = 4830\nvalue = [2144, 2686]\nclass = Squish", fillcolor="#d7ebfa"] ;
8 -> 9 ;
10 [label="gini = 0.05\nsamples = 1409\nvalue = [1376, 33]\nclass = Fake", fillcolor="#e6843e"] ;
9 -> 10 ;
11 [label="gini = 0.35\nsamples = 3421\nvalue = [768, 2653]\nclass = Squish", fillcolor="#72b9ed"] ;
9 -> 11 ;
12 [label="Area <= 0.39\ngini = 0.01\nsamples = 295869\nvalue = [1553, 294316]\nclass = Squish", fillcolor="#3a9ee5"] ;
8 -> 12 ;
13 [label="gini = 0.35\nsamples = 6812\nvalue = [1512, 5300]\nclass = Squish", fillcolor="#71b9ec"] ;
12 -> 13 ;
14 [label="gini = 0.0\nsamples = 289057\nvalue = [41, 289016]\nclass = Squish", fillcolor="#399de5"] ;
12 -> 14 ;
}