digraph Tree {
node [shape=box, style="filled, rounded", color="black", fontname=helvetica] ;
edge [fontname=helvetica] ;
0 [label="Area <= 0.1\ngini = 0.49\nsamples = 1888136\nvalue = [782850, 1105286]\nclass = Squish", fillcolor="#c5e2f7"] ;
1 [label="p_T_1 <= 3.02\ngini = 0.05\nsamples = 793631\nvalue = [771335, 22296]\nclass = Fake", fillcolor="#e6853f"] ;
0 -> 1 [labeldistance=2.5, labelangle=45, headlabel="True"] ;
2 [label="Area <= 0.1\ngini = 0.02\nsamples = 767784\nvalue = [759803, 7981]\nclass = Fake", fillcolor="#e5823b"] ;
1 -> 2 ;
3 [label="gini = 0.0\nsamples = 747785\nvalue = [747322, 463]\nclass = Fake", fillcolor="#e58139"] ;
2 -> 3 ;
4 [label="gini = 0.47\nsamples = 19999\nvalue = [12481, 7518]\nclass = Fake", fillcolor="#f5cdb0"] ;
2 -> 4 ;
5 [label="Area <= 0.08\ngini = 0.49\nsamples = 25847\nvalue = [11532, 14315]\nclass = Squish", fillcolor="#d9ecfa"] ;
1 -> 5 ;
6 [label="gini = 0.06\nsamples = 8051\nvalue = [7795, 256]\nclass = Fake", fillcolor="#e68540"] ;
5 -> 6 ;
7 [label="gini = 0.33\nsamples = 17796\nvalue = [3737, 14059]\nclass = Squish", fillcolor="#6eb7ec"] ;
5 -> 7 ;
8 [label="Angularity <= 0.11\ngini = 0.02\nsamples = 1094505\nvalue = [11515, 1082990]\nclass = Squish", fillcolor="#3b9ee5"] ;
0 -> 8 [labeldistance=2.5, labelangle=-45, headlabel="False"] ;
9 [label="Area <= 0.1\ngini = 0.23\nsamples = 76293\nvalue = [10108, 66185]\nclass = Squish", fillcolor="#57ace9"] ;
8 -> 9 ;
10 [label="gini = 0.46\nsamples = 11913\nvalue = [7682, 4231]\nclass = Fake", fillcolor="#f3c6a6"] ;
9 -> 10 ;
11 [label="gini = 0.07\nsamples = 64380\nvalue = [2426, 61954]\nclass = Squish", fillcolor="#41a1e6"] ;
9 -> 11 ;
12 [label="Area <= 0.1\ngini = 0.0\nsamples = 1018212\nvalue = [1407, 1016805]\nclass = Squish", fillcolor="#399de5"] ;
8 -> 12 ;
13 [label="gini = 0.1\nsamples = 17837\nvalue = [923, 16914]\nclass = Squish", fillcolor="#44a2e6"] ;
12 -> 13 ;
14 [label="gini = 0.0\nsamples = 1000375\nvalue = [484, 999891]\nclass = Squish", fillcolor="#399de5"] ;
12 -> 14 ;
}