digraph Tree {
node [shape=box, style="filled, rounded", color="black", fontname=helvetica] ;
edge [fontname=helvetica] ;
0 [label="Mean-p_T <= 0.68\ngini = 0.49\nsamples = 100576\nvalue = [58026, 42550]\nclass = Fake", fillcolor="#f8ddca"] ;
1 [label="p_T-corr <= 9.64\ngini = 0.12\nsamples = 60843\nvalue = [56939, 3904]\nclass = Fake", fillcolor="#e78a47"] ;
0 -> 1 [labeldistance=2.5, labelangle=45, headlabel="True"] ;
2 [label="Epsilon <= 294.13\ngini = 0.03\nsamples = 57707\nvalue = [56911, 796]\nclass = Fake", fillcolor="#e5833c"] ;
1 -> 2 ;
3 [label="gini = 0.0\nsamples = 56279\nvalue = [56247, 32]\nclass = Fake", fillcolor="#e58139"] ;
2 -> 3 ;
4 [label="gini = 0.5\nsamples = 1428\nvalue = [664, 764]\nclass = Real", fillcolor="#e5f2fc"] ;
2 -> 4 ;
5 [label="p_T-corr <= 9.65\ngini = 0.02\nsamples = 3136\nvalue = [28, 3108]\nclass = Real", fillcolor="#3b9ee5"] ;
1 -> 5 ;
6 [label="gini = 0.5\nsamples = 13\nvalue = [6, 7]\nclass = Real", fillcolor="#e3f1fb"] ;
5 -> 6 ;
7 [label="gini = 0.01\nsamples = 3123\nvalue = [22, 3101]\nclass = Real", fillcolor="#3a9ee5"] ;
5 -> 7 ;
8 [label="Area <= 0.12\ngini = 0.05\nsamples = 39733\nvalue = [1087, 38646]\nclass = Real", fillcolor="#3fa0e6"] ;
0 -> 8 [labeldistance=2.5, labelangle=-45, headlabel="False"] ;
9 [label="Angularity <= 0.12\ngini = 0.46\nsamples = 2587\nvalue = [946, 1641]\nclass = Real", fillcolor="#abd5f4"] ;
8 -> 9 ;
10 [label="gini = 0.0\nsamples = 1320\nvalue = [0, 1320]\nclass = Real", fillcolor="#399de5"] ;
9 -> 10 ;
11 [label="gini = 0.38\nsamples = 1267\nvalue = [946, 321]\nclass = Fake", fillcolor="#eeac7c"] ;
9 -> 11 ;
12 [label="Area <= 0.12\ngini = 0.01\nsamples = 37146\nvalue = [141, 37005]\nclass = Real", fillcolor="#3a9de5"] ;
8 -> 12 ;
13 [label="gini = 0.2\nsamples = 1261\nvalue = [141, 1120]\nclass = Real", fillcolor="#52a9e8"] ;
12 -> 13 ;
14 [label="gini = 0.0\nsamples = 35885\nvalue = [0, 35885]\nclass = Real", fillcolor="#399de5"] ;
12 -> 14 ;
}