digraph Tree {
node [shape=box, style="filled, rounded", color="black", fontname=helvetica] ;
edge [fontname=helvetica] ;
0 [label="p_T-corr <= 7.2\ngini = 0.42\nsamples = 16704\nvalue = [5085, 11619]\nclass = Real", fillcolor="#90c8f0"] ;
1 [label="Area <= 0.48\ngini = 0.45\nsamples = 7438\nvalue = [4912, 2526]\nclass = Fake", fillcolor="#f2c29f"] ;
0 -> 1 [labeldistance=2.5, labelangle=45, headlabel="True"] ;
2 [label="Mean-p_T <= 0.57\ngini = 0.34\nsamples = 6263\nvalue = [4911, 1352]\nclass = Fake", fillcolor="#eca470"] ;
1 -> 2 ;
3 [label="gini = 0.16\nsamples = 5362\nvalue = [4901, 461]\nclass = Fake", fillcolor="#e78d4c"] ;
2 -> 3 ;
4 [label="gini = 0.02\nsamples = 901\nvalue = [10, 891]\nclass = Real", fillcolor="#3b9ee5"] ;
2 -> 4 ;
5 [label="Area <= 0.48\ngini = 0.0\nsamples = 1175\nvalue = [1, 1174]\nclass = Real", fillcolor="#399de5"] ;
1 -> 5 ;
6 [label="gini = 0.44\nsamples = 3\nvalue = [1, 2]\nclass = Real", fillcolor="#9ccef2"] ;
5 -> 6 ;
7 [label="gini = 0.0\nsamples = 1172\nvalue = [0, 1172]\nclass = Real", fillcolor="#399de5"] ;
5 -> 7 ;
8 [label="Epsilon <= 217.39\ngini = 0.04\nsamples = 9266\nvalue = [173, 9093]\nclass = Real", fillcolor="#3d9fe5"] ;
0 -> 8 [labeldistance=2.5, labelangle=-45, headlabel="False"] ;
9 [label="Area <= 0.46\ngini = 0.37\nsamples = 591\nvalue = [147, 444]\nclass = Real", fillcolor="#7bbdee"] ;
8 -> 9 ;
10 [label="gini = 0.5\nsamples = 286\nvalue = [145, 141]\nclass = Fake", fillcolor="#fefcfa"] ;
9 -> 10 ;
11 [label="gini = 0.01\nsamples = 305\nvalue = [2, 303]\nclass = Real", fillcolor="#3a9ee5"] ;
9 -> 11 ;
12 [label="p_T-corr <= 7.56\ngini = 0.01\nsamples = 8675\nvalue = [26, 8649]\nclass = Real", fillcolor="#3a9de5"] ;
8 -> 12 ;
13 [label="gini = 0.39\nsamples = 76\nvalue = [20, 56]\nclass = Real", fillcolor="#80c0ee"] ;
12 -> 13 ;
14 [label="gini = 0.0\nsamples = 8599\nvalue = [6, 8593]\nclass = Real", fillcolor="#399de5"] ;
12 -> 14 ;
}