digraph Tree {
node [shape=box, style="filled, rounded", color="black", fontname=helvetica] ;
edge [fontname=helvetica] ;
0 [label="Area <= 0.3\ngini = 0.57\nsamples = 754514\nvalue = [437215, 141323, 175976]\nclass = Fake", fillcolor="#f3c6a6"] ;
1 [label="Area <= 0.3\ngini = 0.02\nsamples = 427653\nvalue = [423705, 3918, 30]\nclass = Fake", fillcolor="#e5823b"] ;
0 -> 1 [labeldistance=2.5, labelangle=45, headlabel="True"] ;
2 [label="Area <= 0.29\ngini = 0.0\nsamples = 419761\nvalue = [419415, 346, 0]\nclass = Fake", fillcolor="#e58139"] ;
1 -> 2 ;
3 [label="gini = 0.0\nsamples = 410500\nvalue = [410500, 0, 0]\nclass = Fake", fillcolor="#e58139"] ;
2 -> 3 ;
4 [label="gini = 0.07\nsamples = 9261\nvalue = [8915, 346, 0]\nclass = Fake", fillcolor="#e68641"] ;
2 -> 4 ;
5 [label="Mean-p_T <= 0.54\ngini = 0.5\nsamples = 7892\nvalue = [4290, 3572, 30]\nclass = Fake", fillcolor="#fbeade"] ;
1 -> 5 ;
6 [label="gini = 0.41\nsamples = 4623\nvalue = [1345, 3278, 0]\nclass = Squish", fillcolor="#8af0b5"] ;
5 -> 6 ;
7 [label="gini = 0.18\nsamples = 3269\nvalue = [2945, 294, 30]\nclass = Fake", fillcolor="#e88f4f"] ;
5 -> 7 ;
8 [label="Mean-p_T <= 0.52\ngini = 0.53\nsamples = 326861\nvalue = [13510, 137405, 175946]\nclass = Real", fillcolor="#e5d7fa"] ;
0 -> 8 [labeldistance=2.5, labelangle=-45, headlabel="False"] ;
9 [label="Angularity <= 0.23\ngini = 0.17\nsamples = 142758\nvalue = [4090, 129377, 9291]\nclass = Squish", fillcolor="#4de88e"] ;
8 -> 9 ;
10 [label="gini = 0.03\nsamples = 3849\nvalue = [3783, 66, 0]\nclass = Fake", fillcolor="#e5833c"] ;
9 -> 10 ;
11 [label="gini = 0.13\nsamples = 138909\nvalue = [307, 129311, 9291]\nclass = Squish", fillcolor="#48e78a"] ;
9 -> 11 ;
12 [label="Area <= 0.31\ngini = 0.18\nsamples = 184103\nvalue = [9420, 8028, 166655]\nclass = Real", fillcolor="#8e4de8"] ;
8 -> 12 ;
13 [label="gini = 0.42\nsamples = 8058\nvalue = [5678, 2298, 82]\nclass = Fake", fillcolor="#f0b58b"] ;
12 -> 13 ;
14 [label="gini = 0.1\nsamples = 176045\nvalue = [3742, 5730, 166573]\nclass = Real", fillcolor="#8844e6"] ;
12 -> 14 ;
}