digraph Tree {
node [shape=box, style="filled, rounded", color="black", fontname=helvetica] ;
edge [fontname=helvetica] ;
0 [label="Area <= 0.3\ngini = 0.58\nsamples = 754514\nvalue = [435010, 146206, 173298]\nclass = Fake", fillcolor="#f3c6a6"] ;
1 [label="Area <= 0.3\ngini = 0.01\nsamples = 422947\nvalue = [421304, 1242, 401]\nclass = Fake", fillcolor="#e5813a"] ;
0 -> 1 [labeldistance=2.5, labelangle=45, headlabel="True"] ;
2 [label="Area <= 0.29\ngini = 0.0\nsamples = 419761\nvalue = [419518, 243, 0]\nclass = Fake", fillcolor="#e58139"] ;
1 -> 2 ;
3 [label="gini = 0.0\nsamples = 410500\nvalue = [410476, 24, 0]\nclass = Fake", fillcolor="#e58139"] ;
2 -> 3 ;
4 [label="gini = 0.05\nsamples = 9261\nvalue = [9042, 219, 0]\nclass = Fake", fillcolor="#e6843e"] ;
2 -> 4 ;
5 [label="Mean-p_T <= 0.53\ngini = 0.57\nsamples = 3186\nvalue = [1786, 999, 401]\nclass = Fake", fillcolor="#f6d2b8"] ;
1 -> 5 ;
6 [label="gini = 0.49\nsamples = 1620\nvalue = [694, 926, 0]\nclass = Squish", fillcolor="#cdf8df"] ;
5 -> 6 ;
7 [label="gini = 0.45\nsamples = 1566\nvalue = [1092, 73, 401]\nclass = Fake", fillcolor="#f0b48a"] ;
5 -> 7 ;
8 [label="Mean-p_T <= 0.52\ngini = 0.54\nsamples = 331567\nvalue = [13706, 144964, 172897]\nclass = Real", fillcolor="#ece1fb"] ;
0 -> 8 [labeldistance=2.5, labelangle=-45, headlabel="False"] ;
9 [label="p_T-corr <= 12.72\ngini = 0.22\nsamples = 147344\nvalue = [4494, 129368, 13482]\nclass = Squish", fillcolor="#54e892"] ;
8 -> 9 ;
10 [label="gini = 0.15\nsamples = 136860\nvalue = [4450, 125999, 6411]\nclass = Squish", fillcolor="#49e78b"] ;
9 -> 10 ;
11 [label="gini = 0.44\nsamples = 10484\nvalue = [44, 3369, 7071]\nclass = Real", fillcolor="#bd98f1"] ;
9 -> 11 ;
12 [label="Area <= 0.32\ngini = 0.24\nsamples = 184223\nvalue = [9212, 15596, 159415]\nclass = Real", fillcolor="#9456e9"] ;
8 -> 12 ;
13 [label="gini = 0.66\nsamples = 18268\nvalue = [6823, 5485, 5960]\nclass = Fake", fillcolor="#fdf6f1"] ;
12 -> 13 ;
14 [label="gini = 0.14\nsamples = 165955\nvalue = [2389, 10111, 153455]\nclass = Real", fillcolor="#8b49e7"] ;
12 -> 14 ;
}