digraph Tree {
node [shape=box, style="filled, rounded", color="black", fontname=helvetica] ;
edge [fontname=helvetica] ;
0 [label="Area <= 0.66\ngini = 0.5\nsamples = 311924\nvalue = [146393, 165531]\nclass = Squish", fillcolor="#e8f4fc"] ;
1 [label="p_T_1 <= 4.74\ngini = 0.01\nsamples = 144964\nvalue = [144005, 959]\nclass = Fake", fillcolor="#e5823a"] ;
0 -> 1 [labeldistance=2.5, labelangle=45, headlabel="True"] ;
2 [label="Area <= 0.65\ngini = 0.01\nsamples = 144608\nvalue = [143919, 689]\nclass = Fake", fillcolor="#e5823a"] ;
1 -> 2 ;
3 [label="gini = 0.0\nsamples = 141083\nvalue = [141080, 3]\nclass = Fake", fillcolor="#e58139"] ;
2 -> 3 ;
4 [label="gini = 0.31\nsamples = 3525\nvalue = [2839, 686]\nclass = Fake", fillcolor="#eb9f69"] ;
2 -> 4 ;
5 [label="Angularity <= 0.35\ngini = 0.37\nsamples = 356\nvalue = [86, 270]\nclass = Squish", fillcolor="#78bced"] ;
1 -> 5 ;
6 [label="gini = 0.24\nsamples = 95\nvalue = [82, 13]\nclass = Fake", fillcolor="#e99558"] ;
5 -> 6 ;
7 [label="gini = 0.03\nsamples = 261\nvalue = [4, 257]\nclass = Squish", fillcolor="#3c9fe5"] ;
5 -> 7 ;
8 [label="Area <= 0.69\ngini = 0.03\nsamples = 166960\nvalue = [2388, 164572]\nclass = Squish", fillcolor="#3c9ee5"] ;
0 -> 8 [labeldistance=2.5, labelangle=-45, headlabel="False"] ;
9 [label="Angularity <= 0.37\ngini = 0.45\nsamples = 5195\nvalue = [1783, 3412]\nclass = Squish", fillcolor="#a0d0f3"] ;
8 -> 9 ;
10 [label="gini = 0.4\nsamples = 2042\nvalue = [1469, 573]\nclass = Fake", fillcolor="#efb286"] ;
9 -> 10 ;
11 [label="gini = 0.18\nsamples = 3153\nvalue = [314, 2839]\nclass = Squish", fillcolor="#4fa8e8"] ;
9 -> 11 ;
12 [label="Angularity <= 0.35\ngini = 0.01\nsamples = 161765\nvalue = [605, 161160]\nclass = Squish", fillcolor="#3a9de5"] ;
8 -> 12 ;
13 [label="gini = 0.25\nsamples = 3588\nvalue = [517, 3071]\nclass = Squish", fillcolor="#5aade9"] ;
12 -> 13 ;
14 [label="gini = 0.0\nsamples = 158177\nvalue = [88, 158089]\nclass = Squish", fillcolor="#399de5"] ;
12 -> 14 ;
}