digraph Tree {
node [shape=box, style="filled, rounded", color="black", fontname=helvetica] ;
edge [fontname=helvetica] ;
0 [label="Area <= 0.35\ngini = 0.5\nsamples = 845392\nvalue = [400295, 445097]\nclass = Squish", fillcolor="#ebf5fc"] ;
1 [label="p_T_1 <= 3.75\ngini = 0.05\nsamples = 400599\nvalue = [390748, 9851]\nclass = Fake", fillcolor="#e6843e"] ;
0 -> 1 [labeldistance=2.5, labelangle=45, headlabel="True"] ;
2 [label="Area <= 0.35\ngini = 0.02\nsamples = 392177\nvalue = [388894, 3283]\nclass = Fake", fillcolor="#e5823b"] ;
1 -> 2 ;
3 [label="gini = 0.01\nsamples = 385880\nvalue = [384732, 1148]\nclass = Fake", fillcolor="#e5813a"] ;
2 -> 3 ;
4 [label="gini = 0.45\nsamples = 6297\nvalue = [4162, 2135]\nclass = Fake", fillcolor="#f2c29f"] ;
2 -> 4 ;
5 [label="Area <= 0.25\ngini = 0.34\nsamples = 8422\nvalue = [1854, 6568]\nclass = Squish", fillcolor="#71b9ec"] ;
1 -> 5 ;
6 [label="gini = 0.39\nsamples = 2520\nvalue = [1838, 682]\nclass = Fake", fillcolor="#efb082"] ;
5 -> 6 ;
7 [label="gini = 0.01\nsamples = 5902\nvalue = [16, 5886]\nclass = Squish", fillcolor="#3a9de5"] ;
5 -> 7 ;
8 [label="Area <= 0.36\ngini = 0.04\nsamples = 444793\nvalue = [9547, 435246]\nclass = Squish", fillcolor="#3d9fe6"] ;
0 -> 8 [labeldistance=2.5, labelangle=-45, headlabel="False"] ;
9 [label="Angularity <= 0.26\ngini = 0.49\nsamples = 15576\nvalue = [6605, 8971]\nclass = Squish", fillcolor="#cbe5f8"] ;
8 -> 9 ;
10 [label="gini = 0.45\nsamples = 8860\nvalue = [5838, 3022]\nclass = Fake", fillcolor="#f2c29f"] ;
9 -> 10 ;
11 [label="gini = 0.2\nsamples = 6716\nvalue = [767, 5949]\nclass = Squish", fillcolor="#53aae8"] ;
9 -> 11 ;
12 [label="Area <= 0.37\ngini = 0.01\nsamples = 429217\nvalue = [2942, 426275]\nclass = Squish", fillcolor="#3a9ee5"] ;
8 -> 12 ;
13 [label="gini = 0.24\nsamples = 17232\nvalue = [2452, 14780]\nclass = Squish", fillcolor="#5aade9"] ;
12 -> 13 ;
14 [label="gini = 0.0\nsamples = 411985\nvalue = [490, 411495]\nclass = Squish", fillcolor="#399de5"] ;
12 -> 14 ;
}