digraph Tree {
node [shape=box, style="filled, rounded", color="black", fontname=helvetica] ;
edge [fontname=helvetica] ;
0 [label="Epsilon <= 248.14\ngini = 0.25\nsamples = 412\nvalue = [154, 208, 2240]\nclass = 1", fillcolor="#9457e9"] ;
1 [label="gini = 0.48\nsamples = 188\nvalue = [109, 162, 0]\nclass = 2", fillcolor="#bef6d6"] ;
0 -> 1 [labeldistance=2.5, labelangle=45, headlabel="True"] ;
2 [label="Area <= 0.12\ngini = 0.08\nsamples = 224\nvalue = [45, 46, 2240]\nclass = 1", fillcolor="#8641e6"] ;
0 -> 2 [labeldistance=2.5, labelangle=-45, headlabel="False"] ;
3 [label="gini = 0.17\nsamples = 103\nvalue = [36, 34, 720]\nclass = 1", fillcolor="#8d4be7"] ;
2 -> 3 ;
4 [label="gini = 0.03\nsamples = 121\nvalue = [9, 12, 1520]\nclass = 1", fillcolor="#833ce5"] ;
2 -> 4 ;
}