digraph Tree {
node [shape=box, style="filled, rounded", color="black", fontname=helvetica] ;
edge [fontname=helvetica] ;
0 [label="p_T_2 <= 1.76\nentropy = 0.58\nsamples = 3623\nvalue = [4872, 772]\nclass = Fake", fillcolor="#e99558"] ;
1 [label="p_T_1 <= 3.37\nentropy = 0.21\nsamples = 1260\nvalue = [1908, 67]\nclass = Fake", fillcolor="#e68540"] ;
0 -> 1 [labeldistance=2.5, labelangle=45, headlabel="True"] ;
2 [label="p_T <= 33.46\nentropy = 0.19\nsamples = 1241\nvalue = [1890, 56]\nclass = Fake", fillcolor="#e6853f"] ;
1 -> 2 ;
3 [label="entropy = 0.1\nsamples = 758\nvalue = [1153, 16]\nclass = Fake", fillcolor="#e5833c"] ;
2 -> 3 ;
4 [label="entropy = 0.29\nsamples = 483\nvalue = [737, 40]\nclass = Fake", fillcolor="#e68844"] ;
2 -> 4 ;
5 [label="Angularity <= 0.18\nentropy = 0.96\nsamples = 19\nvalue = [18, 11]\nclass = Fake", fillcolor="#f5ceb2"] ;
1 -> 5 ;
6 [label="entropy = 0.0\nsamples = 5\nvalue = [9, 0]\nclass = Fake", fillcolor="#e58139"] ;
5 -> 6 ;
7 [label="entropy = 0.99\nsamples = 14\nvalue = [9, 11]\nclass = 10% True", fillcolor="#dbedfa"] ;
5 -> 7 ;
8 [label="p_T-corr <= -25.69\nentropy = 0.71\nsamples = 2363\nvalue = [2964, 705]\nclass = Fake", fillcolor="#eb9f68"] ;
0 -> 8 [labeldistance=2.5, labelangle=-45, headlabel="False"] ;
9 [label="p_T <= 75.6\nentropy = 0.61\nsamples = 1369\nvalue = [1787, 311]\nclass = Fake", fillcolor="#ea975b"] ;
8 -> 9 ;
10 [label="entropy = 0.57\nsamples = 1281\nvalue = [1695, 265]\nclass = Fake", fillcolor="#e99558"] ;
9 -> 10 ;
11 [label="entropy = 0.92\nsamples = 88\nvalue = [92, 46]\nclass = Fake", fillcolor="#f2c09c"] ;
9 -> 11 ;
12 [label="p_T_1 <= 4.57\nentropy = 0.81\nsamples = 994\nvalue = [1177, 394]\nclass = Fake", fillcolor="#eeab7b"] ;
8 -> 12 ;
13 [label="entropy = 0.77\nsamples = 958\nvalue = [1172, 343]\nclass = Fake", fillcolor="#eda673"] ;
12 -> 13 ;
14 [label="entropy = 0.43\nsamples = 36\nvalue = [5, 51]\nclass = 10% True", fillcolor="#4ca7e8"] ;
12 -> 14 ;
}