digraph Tree {
node [shape=box, style="filled, rounded", color="black", fontname=helvetica] ;
edge [fontname=helvetica] ;
0 [label="Area <= 1.13\ngini = 0.0\nsamples = 58990\nvalue = [29887, 29814, 29712000]\nclass = 0", fillcolor="#8139e5"] ;
1 [label="gini = 0.03\nsamples = 36591\nvalue = [28269, 24196, 2968000]\nclass = 0", fillcolor="#833ce5"] ;
0 -> 1 [labeldistance=2.5, labelangle=45, headlabel="True"] ;
2 [label="p_T-corr <= 54.73\ngini = 0.0\nsamples = 22399\nvalue = [1618, 5618, 26744000]\nclass = 0", fillcolor="#8139e5"] ;
0 -> 2 [labeldistance=2.5, labelangle=-45, headlabel="False"] ;
3 [label="gini = 0.0\nsamples = 4030\nvalue = [743, 2250, 3107000]\nclass = 0", fillcolor="#8139e5"] ;
2 -> 3 ;
4 [label="p_T-corr <= 82.37\ngini = 0.0\nsamples = 18369\nvalue = [875, 3368, 23637000]\nclass = 0", fillcolor="#8139e5"] ;
2 -> 4 ;
5 [label="gini = 0.0\nsamples = 5195\nvalue = [453, 1760, 5674000]\nclass = 0", fillcolor="#8139e5"] ;
4 -> 5 ;
6 [label="gini = 0.0\nsamples = 13174\nvalue = [422, 1608, 17963000]\nclass = 0", fillcolor="#8139e5"] ;
4 -> 6 ;
}