digraph Tree {
node [shape=box, style="filled, rounded", color="black", fontname=helvetica] ;
edge [fontname=helvetica] ;
0 [label="Angularity <= 0.22\ngini = 0.51\nsamples = 7748\nvalue = [2206, 4880, 662]\nclass = 1", fillcolor="#9ff2c2"] ;
1 [label="p_T_2 <= 2.82\ngini = 0.52\nsamples = 1975\nvalue = [1028, 902, 45]\nclass = 2", fillcolor="#fcf0e8"] ;
0 -> 1 [labeldistance=2.5, labelangle=45, headlabel="True"] ;
2 [label="Area <= 0.17\ngini = 0.5\nsamples = 1933\nvalue = [1028, 897, 8]\nclass = 2", fillcolor="#fcefe6"] ;
1 -> 2 ;
3 [label="gini = 0.49\nsamples = 1438\nvalue = [845, 591, 2]\nclass = 2", fillcolor="#f7d9c4"] ;
2 -> 3 ;
4 [label="gini = 0.48\nsamples = 495\nvalue = [183, 306, 6]\nclass = 1", fillcolor="#b1f5cd"] ;
2 -> 4 ;
5 [label="Phi <= 0.75\ngini = 0.21\nsamples = 42\nvalue = [0, 5, 37]\nclass = 0", fillcolor="#9254e9"] ;
1 -> 5 ;
6 [label="gini = 0.5\nsamples = 6\nvalue = [0, 3, 3]\nclass = 1", fillcolor="#ffffff"] ;
5 -> 6 ;
7 [label="gini = 0.1\nsamples = 36\nvalue = [0, 2, 34]\nclass = 0", fillcolor="#8845e7"] ;
5 -> 7 ;
8 [label="p_T_1 <= 5.28\ngini = 0.47\nsamples = 5773\nvalue = [1178, 3978, 617]\nclass = 1", fillcolor="#86efb2"] ;
0 -> 8 [labeldistance=2.5, labelangle=-45, headlabel="False"] ;
9 [label="Area <= 0.25\ngini = 0.41\nsamples = 5356\nvalue = [1176, 3947, 233]\nclass = 1", fillcolor="#7ceeab"] ;
8 -> 9 ;
10 [label="gini = 0.48\nsamples = 726\nvalue = [287, 437, 2]\nclass = 1", fillcolor="#bbf6d4"] ;
9 -> 10 ;
11 [label="gini = 0.39\nsamples = 4630\nvalue = [889, 3510, 231]\nclass = 1", fillcolor="#74eda7"] ;
9 -> 11 ;
12 [label="p_T_2 <= 3.63\ngini = 0.15\nsamples = 417\nvalue = [2, 31, 384]\nclass = 0", fillcolor="#8c4ae7"] ;
8 -> 12 ;
13 [label="gini = 0.25\nsamples = 222\nvalue = [2, 30, 190]\nclass = 0", fillcolor="#965ae9"] ;
12 -> 13 ;
14 [label="gini = 0.01\nsamples = 195\nvalue = [0, 1, 194]\nclass = 0", fillcolor="#823ae5"] ;
12 -> 14 ;
}