digraph Tree {
node [shape=box, style="filled, rounded", color="black", fontname=helvetica] ;
edge [fontname=helvetica] ;
0 [label="Rho <= 206.94\ngini = 0.18\nsamples = 421832\nvalue = [189795, 421946, 5602300]\nclass = 0", fillcolor="#8e4ee8"] ;
1 [label="p_T-corr <= -26.06\ngini = 0.62\nsamples = 161700\nvalue = [95500, 157806, 252700]\nclass = 0", fillcolor="#ddc9f8"] ;
0 -> 1 [labeldistance=2.5, labelangle=45, headlabel="True"] ;
3 [label="gini = 0.61\nsamples = 117683\nvalue = [81355, 104445, 32600]\nclass = 1", fillcolor="#defbea"] ;
1 -> 3 ;
4 [label="gini = 0.38\nsamples = 44017\nvalue = [14145, 53361, 220100]\nclass = 0", fillcolor="#a572ec"] ;
1 -> 4 ;
2 [label="Rho <= 231.9\ngini = 0.12\nsamples = 260132\nvalue = [94295, 264140, 5349600]\nclass = 0", fillcolor="#8946e7"] ;
0 -> 2 [labeldistance=2.5, labelangle=-45, headlabel="False"] ;
5 [label="gini = 0.27\nsamples = 131848\nvalue = [52629, 145327, 1086300]\nclass = 0", fillcolor="#975bea"] ;
2 -> 5 ;
6 [label="gini = 0.07\nsamples = 128284\nvalue = [41666, 118813, 4263300]\nclass = 0", fillcolor="#8640e6"] ;
2 -> 6 ;
}